digraph Tree {
node [shape=box, style="filled, rounded", color="black", fontname="helvetica"] ;
edge [fontname="helvetica"] ;
0 [label="cp <= 0.5\nentropy = 0.998\nsamples = 717\nvalue = [340, 377]\nclass = Tiene infarto", fillcolor="#ecf5fc"] ;
1 [label="ca <= 0.5\nentropy = 0.819\nsamples = 345\nvalue = [257, 88]\nclass = No tiene infarto", fillcolor="#eeac7d"] ;
0 -> 1 [labeldistance=2.5, labelangle=45, headlabel="True"] ;
2 [label="thal <= 2.5\nentropy = 0.998\nsamples = 152\nvalue = [72, 80]\nclass = Tiene infarto", fillcolor="#ebf5fc"] ;
1 -> 2 ;
3 [label="slope <= 1.5\nentropy = 0.753\nsamples = 88\nvalue = [19, 69]\nclass = Tiene infarto", fillcolor="#70b8ec"] ;
2 -> 3 ;
4 [label="restecg <= 0.5\nentropy = 0.968\nsamples = 43\nvalue = [17, 26]\nclass = Tiene infarto", fillcolor="#baddf6"] ;
3 -> 4 ;
5 [label="entropy = 0.0\nsamples = 14\nvalue = [0, 14]\nclass = Tiene infarto", fillcolor="#399de5"] ;
4 -> 5 ;
6 [label="chol <= 202.5\nentropy = 0.978\nsamples = 29\nvalue = [17, 12]\nclass = No tiene infarto", fillcolor="#f7dac5"] ;
4 -> 6 ;
7 [label="slope <= 0.5\nentropy = 0.837\nsamples = 15\nvalue = [4, 11]\nclass = Tiene infarto", fillcolor="#81c1ee"] ;
6 -> 7 ;
8 [label="entropy = 0.0\nsamples = 3\nvalue = [3, 0]\nclass = No tiene infarto", fillcolor="#e58139"] ;
7 -> 8 ;
9 [label="oldpeak <= 0.2\nentropy = 0.414\nsamples = 12\nvalue = [1, 11]\nclass = Tiene infarto", fillcolor="#4ba6e7"] ;
7 -> 9 ;
10 [label="entropy = 0.0\nsamples = 1\nvalue = [1, 0]\nclass = No tiene infarto", fillcolor="#e58139"] ;
9 -> 10 ;
11 [label="entropy = 0.0\nsamples = 11\nvalue = [0, 11]\nclass = Tiene infarto", fillcolor="#399de5"] ;
9 -> 11 ;
12 [label="trestbps <= 117.5\nentropy = 0.371\nsamples = 14\nvalue = [13, 1]\nclass = No tiene infarto", fillcolor="#e78b48"] ;
6 -> 12 ;
13 [label="entropy = 0.0\nsamples = 1\nvalue = [0, 1]\nclass = Tiene infarto", fillcolor="#399de5"] ;
12 -> 13 ;
14 [label="entropy = 0.0\nsamples = 13\nvalue = [13, 0]\nclass = No tiene infarto", fillcolor="#e58139"] ;
12 -> 14 ;
15 [label="chol <= 327.5\nentropy = 0.262\nsamples = 45\nvalue = [2, 43]\nclass = Tiene infarto", fillcolor="#42a2e6"] ;
3 -> 15 ;
16 [label="entropy = 0.0\nsamples = 40\nvalue = [0, 40]\nclass = Tiene infarto", fillcolor="#399de5"] ;
15 -> 16 ;
17 [label="trestbps <= 125.0\nentropy = 0.971\nsamples = 5\nvalue = [2, 3]\nclass = Tiene infarto", fillcolor="#bddef6"] ;
15 -> 17 ;
18 [label="entropy = 0.0\nsamples = 3\nvalue = [0, 3]\nclass = Tiene infarto", fillcolor="#399de5"] ;
17 -> 18 ;
19 [label="entropy = 0.0\nsamples = 2\nvalue = [2, 0]\nclass = No tiene infarto", fillcolor="#e58139"] ;
17 -> 19 ;
20 [label="oldpeak <= 0.65\nentropy = 0.662\nsamples = 64\nvalue = [53, 11]\nclass = No tiene infarto", fillcolor="#ea9b62"] ;
2 -> 20 ;
21 [label="chol <= 237.5\nentropy = 0.999\nsamples = 23\nvalue = [12, 11]\nclass = No tiene infarto", fillcolor="#fdf5ef"] ;
20 -> 21 ;
22 [label="age <= 42.0\nentropy = 0.837\nsamples = 15\nvalue = [4, 11]\nclass = Tiene infarto", fillcolor="#81c1ee"] ;
21 -> 22 ;
23 [label="entropy = 0.0\nsamples = 4\nvalue = [4, 0]\nclass = No tiene infarto", fillcolor="#e58139"] ;
22 -> 23 ;
24 [label="entropy = 0.0\nsamples = 11\nvalue = [0, 11]\nclass = Tiene infarto", fillcolor="#399de5"] ;
22 -> 24 ;
25 [label="entropy = 0.0\nsamples = 8\nvalue = [8, 0]\nclass = No tiene infarto", fillcolor="#e58139"] ;
21 -> 25 ;
26 [label="entropy = 0.0\nsamples = 41\nvalue = [41, 0]\nclass = No tiene infarto", fillcolor="#e58139"] ;
20 -> 26 ;
27 [label="restecg <= 0.5\nentropy = 0.249\nsamples = 193\nvalue = [185, 8]\nclass = No tiene infarto", fillcolor="#e68642"] ;
1 -> 27 ;
28 [label="entropy = 0.0\nsamples = 120\nvalue = [120, 0]\nclass = No tiene infarto", fillcolor="#e58139"] ;
27 -> 28 ;
29 [label="age <= 63.5\nentropy = 0.499\nsamples = 73\nvalue = [65, 8]\nclass = No tiene infarto", fillcolor="#e89151"] ;
27 -> 29 ;
30 [label="trestbps <= 109.0\nentropy = 0.219\nsamples = 57\nvalue = [55, 2]\nclass = No tiene infarto", fillcolor="#e68640"] ;
29 -> 30 ;
31 [label="thalach <= 151.5\nentropy = 0.918\nsamples = 6\nvalue = [4, 2]\nclass = No tiene infarto", fillcolor="#f2c09c"] ;
30 -> 31 ;
32 [label="entropy = 0.0\nsamples = 2\nvalue = [0, 2]\nclass = Tiene infarto", fillcolor="#399de5"] ;
31 -> 32 ;
33 [label="entropy = 0.0\nsamples = 4\nvalue = [4, 0]\nclass = No tiene infarto", fillcolor="#e58139"] ;
31 -> 33 ;
34 [label="entropy = 0.0\nsamples = 51\nvalue = [51, 0]\nclass = No tiene infarto", fillcolor="#e58139"] ;
30 -> 34 ;
35 [label="fbs <= 0.5\nentropy = 0.954\nsamples = 16\nvalue = [10, 6]\nclass = No tiene infarto", fillcolor="#f5cdb0"] ;
29 -> 35 ;
36 [label="entropy = 0.0\nsamples = 6\nvalue = [0, 6]\nclass = Tiene infarto", fillcolor="#399de5"] ;
35 -> 36 ;
37 [label="entropy = 0.0\nsamples = 10\nvalue = [10, 0]\nclass = No tiene infarto", fillcolor="#e58139"] ;
35 -> 37 ;
38 [label="thal <= 2.5\nentropy = 0.766\nsamples = 372\nvalue = [83, 289]\nclass = Tiene infarto", fillcolor="#72b9ec"] ;
0 -> 38 [labeldistance=2.5, labelangle=-45, headlabel="False"] ;
39 [label="age <= 55.5\nentropy = 0.556\nsamples = 278\nvalue = [36, 242]\nclass = Tiene infarto", fillcolor="#56ace9"] ;
38 -> 39 ;
40 [label="thalach <= 152.5\nentropy = 0.241\nsamples = 176\nvalue = [7, 169]\nclass = Tiene infarto", fillcolor="#41a1e6"] ;
39 -> 40 ;
41 [label="age <= 50.0\nentropy = 0.7\nsamples = 37\nvalue = [7, 30]\nclass = Tiene infarto", fillcolor="#67b4eb"] ;
40 -> 41 ;
42 [label="age <= 45.5\nentropy = 0.918\nsamples = 21\nvalue = [7, 14]\nclass = Tiene infarto", fillcolor="#9ccef2"] ;
41 -> 42 ;
43 [label="entropy = 0.0\nsamples = 13\nvalue = [0, 13]\nclass = Tiene infarto", fillcolor="#399de5"] ;
42 -> 43 ;
44 [label="chol <= 259.0\nentropy = 0.544\nsamples = 8\nvalue = [7, 1]\nclass = No tiene infarto", fillcolor="#e99355"] ;
42 -> 44 ;
45 [label="entropy = 0.0\nsamples = 7\nvalue = [7, 0]\nclass = No tiene infarto", fillcolor="#e58139"] ;
44 -> 45 ;
46 [label="entropy = 0.0\nsamples = 1\nvalue = [0, 1]\nclass = Tiene infarto", fillcolor="#399de5"] ;
44 -> 46 ;
47 [label="entropy = 0.0\nsamples = 16\nvalue = [0, 16]\nclass = Tiene infarto", fillcolor="#399de5"] ;
41 -> 47 ;
48 [label="entropy = 0.0\nsamples = 139\nvalue = [0, 139]\nclass = Tiene infarto", fillcolor="#399de5"] ;
40 -> 48 ;
49 [label="sex <= 0.5\nentropy = 0.861\nsamples = 102\nvalue = [29, 73]\nclass = Tiene infarto", fillcolor="#88c4ef"] ;
39 -> 49 ;
50 [label="age <= 59.0\nentropy = 0.475\nsamples = 49\nvalue = [5, 44]\nclass = Tiene infarto", fillcolor="#50a8e8"] ;
49 -> 50 ;
51 [label="ca <= 0.5\nentropy = 0.994\nsamples = 11\nvalue = [5, 6]\nclass = Tiene infarto", fillcolor="#deeffb"] ;
50 -> 51 ;
52 [label="entropy = 0.0\nsamples = 6\nvalue = [0, 6]\nclass = Tiene infarto", fillcolor="#399de5"] ;
51 -> 52 ;
53 [label="entropy = 0.0\nsamples = 5\nvalue = [5, 0]\nclass = No tiene infarto", fillcolor="#e58139"] ;
51 -> 53 ;
54 [label="entropy = 0.0\nsamples = 38\nvalue = [0, 38]\nclass = Tiene infarto", fillcolor="#399de5"] ;
50 -> 54 ;
55 [label="chol <= 245.5\nentropy = 0.994\nsamples = 53\nvalue = [24, 29]\nclass = Tiene infarto", fillcolor="#ddeefb"] ;
49 -> 55 ;
56 [label="ca <= 0.5\nentropy = 0.849\nsamples = 40\nvalue = [11, 29]\nclass = Tiene infarto", fillcolor="#84c2ef"] ;
55 -> 56 ;
57 [label="oldpeak <= 2.65\nentropy = 0.362\nsamples = 29\nvalue = [2, 27]\nclass = Tiene infarto", fillcolor="#48a4e7"] ;
56 -> 57 ;
58 [label="entropy = 0.0\nsamples = 27\nvalue = [0, 27]\nclass = Tiene infarto", fillcolor="#399de5"] ;
57 -> 58 ;
59 [label="entropy = 0.0\nsamples = 2\nvalue = [2, 0]\nclass = No tiene infarto", fillcolor="#e58139"] ;
57 -> 59 ;
60 [label="age <= 65.0\nentropy = 0.684\nsamples = 11\nvalue = [9, 2]\nclass = No tiene infarto", fillcolor="#eb9d65"] ;
56 -> 60 ;
61 [label="entropy = 0.0\nsamples = 9\nvalue = [9, 0]\nclass = No tiene infarto", fillcolor="#e58139"] ;
60 -> 61 ;
62 [label="entropy = 0.0\nsamples = 2\nvalue = [0, 2]\nclass = Tiene infarto", fillcolor="#399de5"] ;
60 -> 62 ;
63 [label="entropy = 0.0\nsamples = 13\nvalue = [13, 0]\nclass = No tiene infarto", fillcolor="#e58139"] ;
55 -> 63 ;
64 [label="thalach <= 132.5\nentropy = 1.0\nsamples = 94\nvalue = [47, 47]\nclass = No tiene infarto", fillcolor="#ffffff"] ;
38 -> 64 ;
65 [label="entropy = 0.0\nsamples = 12\nvalue = [12, 0]\nclass = No tiene infarto", fillcolor="#e58139"] ;
64 -> 65 ;
66 [label="oldpeak <= 1.95\nentropy = 0.984\nsamples = 82\nvalue = [35, 47]\nclass = Tiene infarto", fillcolor="#cce6f8"] ;
64 -> 66 ;
67 [label="trestbps <= 176.0\nentropy = 0.89\nsamples = 65\nvalue = [20, 45]\nclass = Tiene infarto", fillcolor="#91c9f1"] ;
66 -> 67 ;
68 [label="oldpeak <= 0.1\nentropy = 0.791\nsamples = 59\nvalue = [14, 45]\nclass = Tiene infarto", fillcolor="#77bbed"] ;
67 -> 68 ;
69 [label="entropy = 0.0\nsamples = 13\nvalue = [0, 13]\nclass = Tiene infarto", fillcolor="#399de5"] ;
68 -> 69 ;
70 [label="oldpeak <= 1.1\nentropy = 0.887\nsamples = 46\nvalue = [14, 32]\nclass = Tiene infarto", fillcolor="#90c8f0"] ;
68 -> 70 ;
71 [label="fbs <= 0.5\nentropy = 0.971\nsamples = 35\nvalue = [14, 21]\nclass = Tiene infarto", fillcolor="#bddef6"] ;
70 -> 71 ;
72 [label="thalach <= 157.0\nentropy = 0.999\nsamples = 29\nvalue = [14, 15]\nclass = Tiene infarto", fillcolor="#f2f8fd"] ;
71 -> 72 ;
73 [label="trestbps <= 122.0\nentropy = 0.863\nsamples = 21\nvalue = [6, 15]\nclass = Tiene infarto", fillcolor="#88c4ef"] ;
72 -> 73 ;
74 [label="entropy = 0.0\nsamples = 8\nvalue = [0, 8]\nclass = Tiene infarto", fillcolor="#399de5"] ;
73 -> 74 ;
75 [label="age <= 57.5\nentropy = 0.996\nsamples = 13\nvalue = [6, 7]\nclass = Tiene infarto", fillcolor="#e3f1fb"] ;
73 -> 75 ;
76 [label="entropy = 0.0\nsamples = 4\nvalue = [4, 0]\nclass = No tiene infarto", fillcolor="#e58139"] ;
75 -> 76 ;
77 [label="age <= 65.5\nentropy = 0.764\nsamples = 9\nvalue = [2, 7]\nclass = Tiene infarto", fillcolor="#72b9ec"] ;
75 -> 77 ;
78 [label="entropy = 0.0\nsamples = 7\nvalue = [0, 7]\nclass = Tiene infarto", fillcolor="#399de5"] ;
77 -> 78 ;
79 [label="entropy = 0.0\nsamples = 2\nvalue = [2, 0]\nclass = No tiene infarto", fillcolor="#e58139"] ;
77 -> 79 ;
80 [label="entropy = 0.0\nsamples = 8\nvalue = [8, 0]\nclass = No tiene infarto", fillcolor="#e58139"] ;
72 -> 80 ;
81 [label="entropy = 0.0\nsamples = 6\nvalue = [0, 6]\nclass = Tiene infarto", fillcolor="#399de5"] ;
71 -> 81 ;
82 [label="entropy = 0.0\nsamples = 11\nvalue = [0, 11]\nclass = Tiene infarto", fillcolor="#399de5"] ;
70 -> 82 ;
83 [label="entropy = 0.0\nsamples = 6\nvalue = [6, 0]\nclass = No tiene infarto", fillcolor="#e58139"] ;
67 -> 83 ;
84 [label="trestbps <= 159.0\nentropy = 0.523\nsamples = 17\nvalue = [15, 2]\nclass = No tiene infarto", fillcolor="#e89253"] ;
66 -> 84 ;
85 [label="entropy = 0.0\nsamples = 15\nvalue = [15, 0]\nclass = No tiene infarto", fillcolor="#e58139"] ;
84 -> 85 ;
86 [label="entropy = 0.0\nsamples = 2\nvalue = [0, 2]\nclass = Tiene infarto", fillcolor="#399de5"] ;
84 -> 86 ;
}