digraph Tree {
node [shape=box, style="filled, rounded", color="black", fontname="helvetica"] ;
edge [fontname="helvetica"] ;
0 [label="cp <= 0.5\nentropy = 0.998\nsamples = 717\nvalue = [340, 377]\nclass = Tiene infarto", fillcolor="#ecf5fc"] ;
1 [label="ca <= 0.5\nentropy = 0.819\nsamples = 345\nvalue = [257, 88]\nclass = No tiene infarto", fillcolor="#eeac7d"] ;
0 -> 1 [labeldistance=2.5, labelangle=45, headlabel="True"] ;
2 [label="thal <= 2.5\nentropy = 0.998\nsamples = 152\nvalue = [72, 80]\nclass = Tiene infarto", fillcolor="#ebf5fc"] ;
1 -> 2 ;
3 [label="slope <= 1.5\nentropy = 0.753\nsamples = 88\nvalue = [19, 69]\nclass = Tiene infarto", fillcolor="#70b8ec"] ;
2 -> 3 ;
4 [label="restecg <= 0.5\nentropy = 0.968\nsamples = 43\nvalue = [17, 26]\nclass = Tiene infarto", fillcolor="#baddf6"] ;
3 -> 4 ;
5 [label="entropy = 0.0\nsamples = 14\nvalue = [0, 14]\nclass = Tiene infarto", fillcolor="#399de5"] ;
4 -> 5 ;
6 [label="chol <= 202.5\nentropy = 0.978\nsamples = 29\nvalue = [17, 12]\nclass = No tiene infarto", fillcolor="#f7dac5"] ;
4 -> 6 ;
7 [label="slope <= 0.5\nentropy = 0.837\nsamples = 15\nvalue = [4, 11]\nclass = Tiene infarto", fillcolor="#81c1ee"] ;
6 -> 7 ;
8 [label="entropy = 0.0\nsamples = 3\nvalue = [3, 0]\nclass = No tiene infarto", fillcolor="#e58139"] ;
7 -> 8 ;
9 [label="entropy = 0.414\nsamples = 12\nvalue = [1, 11]\nclass = Tiene infarto", fillcolor="#4ba6e7"] ;
7 -> 9 ;
10 [label="thalach <= 168.5\nentropy = 0.371\nsamples = 14\nvalue = [13, 1]\nclass = No tiene infarto", fillcolor="#e78b48"] ;
6 -> 10 ;
11 [label="entropy = 0.0\nsamples = 13\nvalue = [13, 0]\nclass = No tiene infarto", fillcolor="#e58139"] ;
10 -> 11 ;
12 [label="entropy = 0.0\nsamples = 1\nvalue = [0, 1]\nclass = Tiene infarto", fillcolor="#399de5"] ;
10 -> 12 ;
13 [label="chol <= 327.5\nentropy = 0.262\nsamples = 45\nvalue = [2, 43]\nclass = Tiene infarto", fillcolor="#42a2e6"] ;
3 -> 13 ;
14 [label="entropy = 0.0\nsamples = 40\nvalue = [0, 40]\nclass = Tiene infarto", fillcolor="#399de5"] ;
13 -> 14 ;
15 [label="age <= 59.0\nentropy = 0.971\nsamples = 5\nvalue = [2, 3]\nclass = Tiene infarto", fillcolor="#bddef6"] ;
13 -> 15 ;
16 [label="entropy = 0.0\nsamples = 3\nvalue = [0, 3]\nclass = Tiene infarto", fillcolor="#399de5"] ;
15 -> 16 ;
17 [label="entropy = 0.0\nsamples = 2\nvalue = [2, 0]\nclass = No tiene infarto", fillcolor="#e58139"] ;
15 -> 17 ;
18 [label="oldpeak <= 0.65\nentropy = 0.662\nsamples = 64\nvalue = [53, 11]\nclass = No tiene infarto", fillcolor="#ea9b62"] ;
2 -> 18 ;
19 [label="chol <= 237.5\nentropy = 0.999\nsamples = 23\nvalue = [12, 11]\nclass = No tiene infarto", fillcolor="#fdf5ef"] ;
18 -> 19 ;
20 [label="age <= 42.0\nentropy = 0.837\nsamples = 15\nvalue = [4, 11]\nclass = Tiene infarto", fillcolor="#81c1ee"] ;
19 -> 20 ;
21 [label="entropy = 0.0\nsamples = 4\nvalue = [4, 0]\nclass = No tiene infarto", fillcolor="#e58139"] ;
20 -> 21 ;
22 [label="entropy = 0.0\nsamples = 11\nvalue = [0, 11]\nclass = Tiene infarto", fillcolor="#399de5"] ;
20 -> 22 ;
23 [label="entropy = 0.0\nsamples = 8\nvalue = [8, 0]\nclass = No tiene infarto", fillcolor="#e58139"] ;
19 -> 23 ;
24 [label="entropy = 0.0\nsamples = 41\nvalue = [41, 0]\nclass = No tiene infarto", fillcolor="#e58139"] ;
18 -> 24 ;
25 [label="restecg <= 0.5\nentropy = 0.249\nsamples = 193\nvalue = [185, 8]\nclass = No tiene infarto", fillcolor="#e68642"] ;
1 -> 25 ;
26 [label="entropy = 0.0\nsamples = 120\nvalue = [120, 0]\nclass = No tiene infarto", fillcolor="#e58139"] ;
25 -> 26 ;
27 [label="age <= 63.5\nentropy = 0.499\nsamples = 73\nvalue = [65, 8]\nclass = No tiene infarto", fillcolor="#e89151"] ;
25 -> 27 ;
28 [label="trestbps <= 109.0\nentropy = 0.219\nsamples = 57\nvalue = [55, 2]\nclass = No tiene infarto", fillcolor="#e68640"] ;
27 -> 28 ;
29 [label="fbs <= 0.5\nentropy = 0.918\nsamples = 6\nvalue = [4, 2]\nclass = No tiene infarto", fillcolor="#f2c09c"] ;
28 -> 29 ;
30 [label="entropy = 0.0\nsamples = 4\nvalue = [4, 0]\nclass = No tiene infarto", fillcolor="#e58139"] ;
29 -> 30 ;
31 [label="entropy = 0.0\nsamples = 2\nvalue = [0, 2]\nclass = Tiene infarto", fillcolor="#399de5"] ;
29 -> 31 ;
32 [label="entropy = 0.0\nsamples = 51\nvalue = [51, 0]\nclass = No tiene infarto", fillcolor="#e58139"] ;
28 -> 32 ;
33 [label="fbs <= 0.5\nentropy = 0.954\nsamples = 16\nvalue = [10, 6]\nclass = No tiene infarto", fillcolor="#f5cdb0"] ;
27 -> 33 ;
34 [label="entropy = 0.0\nsamples = 6\nvalue = [0, 6]\nclass = Tiene infarto", fillcolor="#399de5"] ;
33 -> 34 ;
35 [label="entropy = 0.0\nsamples = 10\nvalue = [10, 0]\nclass = No tiene infarto", fillcolor="#e58139"] ;
33 -> 35 ;
36 [label="thal <= 2.5\nentropy = 0.766\nsamples = 372\nvalue = [83, 289]\nclass = Tiene infarto", fillcolor="#72b9ec"] ;
0 -> 36 [labeldistance=2.5, labelangle=-45, headlabel="False"] ;
37 [label="age <= 55.5\nentropy = 0.556\nsamples = 278\nvalue = [36, 242]\nclass = Tiene infarto", fillcolor="#56ace9"] ;
36 -> 37 ;
38 [label="thalach <= 152.5\nentropy = 0.241\nsamples = 176\nvalue = [7, 169]\nclass = Tiene infarto", fillcolor="#41a1e6"] ;
37 -> 38 ;
39 [label="age <= 50.0\nentropy = 0.7\nsamples = 37\nvalue = [7, 30]\nclass = Tiene infarto", fillcolor="#67b4eb"] ;
38 -> 39 ;
40 [label="age <= 45.5\nentropy = 0.918\nsamples = 21\nvalue = [7, 14]\nclass = Tiene infarto", fillcolor="#9ccef2"] ;
39 -> 40 ;
41 [label="entropy = 0.0\nsamples = 13\nvalue = [0, 13]\nclass = Tiene infarto", fillcolor="#399de5"] ;
40 -> 41 ;
42 [label="sex <= 0.5\nentropy = 0.544\nsamples = 8\nvalue = [7, 1]\nclass = No tiene infarto", fillcolor="#e99355"] ;
40 -> 42 ;
43 [label="entropy = 0.0\nsamples = 1\nvalue = [0, 1]\nclass = Tiene infarto", fillcolor="#399de5"] ;
42 -> 43 ;
44 [label="entropy = 0.0\nsamples = 7\nvalue = [7, 0]\nclass = No tiene infarto", fillcolor="#e58139"] ;
42 -> 44 ;
45 [label="entropy = 0.0\nsamples = 16\nvalue = [0, 16]\nclass = Tiene infarto", fillcolor="#399de5"] ;
39 -> 45 ;
46 [label="entropy = 0.0\nsamples = 139\nvalue = [0, 139]\nclass = Tiene infarto", fillcolor="#399de5"] ;
38 -> 46 ;
47 [label="sex <= 0.5\nentropy = 0.861\nsamples = 102\nvalue = [29, 73]\nclass = Tiene infarto", fillcolor="#88c4ef"] ;
37 -> 47 ;
48 [label="cp <= 1.5\nentropy = 0.475\nsamples = 49\nvalue = [5, 44]\nclass = Tiene infarto", fillcolor="#50a8e8"] ;
47 -> 48 ;
49 [label="oldpeak <= 0.1\nentropy = 0.994\nsamples = 11\nvalue = [5, 6]\nclass = Tiene infarto", fillcolor="#deeffb"] ;
48 -> 49 ;
50 [label="entropy = 0.0\nsamples = 5\nvalue = [5, 0]\nclass = No tiene infarto", fillcolor="#e58139"] ;
49 -> 50 ;
51 [label="entropy = 0.0\nsamples = 6\nvalue = [0, 6]\nclass = Tiene infarto", fillcolor="#399de5"] ;
49 -> 51 ;
52 [label="entropy = 0.0\nsamples = 38\nvalue = [0, 38]\nclass = Tiene infarto", fillcolor="#399de5"] ;
48 -> 52 ;
53 [label="chol <= 245.5\nentropy = 0.994\nsamples = 53\nvalue = [24, 29]\nclass = Tiene infarto", fillcolor="#ddeefb"] ;
47 -> 53 ;
54 [label="ca <= 0.5\nentropy = 0.849\nsamples = 40\nvalue = [11, 29]\nclass = Tiene infarto", fillcolor="#84c2ef"] ;
53 -> 54 ;
55 [label="oldpeak <= 2.65\nentropy = 0.362\nsamples = 29\nvalue = [2, 27]\nclass = Tiene infarto", fillcolor="#48a4e7"] ;
54 -> 55 ;
56 [label="entropy = 0.0\nsamples = 27\nvalue = [0, 27]\nclass = Tiene infarto", fillcolor="#399de5"] ;
55 -> 56 ;
57 [label="entropy = 0.0\nsamples = 2\nvalue = [2, 0]\nclass = No tiene infarto", fillcolor="#e58139"] ;
55 -> 57 ;
58 [label="thalach <= 132.5\nentropy = 0.684\nsamples = 11\nvalue = [9, 2]\nclass = No tiene infarto", fillcolor="#eb9d65"] ;
54 -> 58 ;
59 [label="entropy = 0.0\nsamples = 2\nvalue = [0, 2]\nclass = Tiene infarto", fillcolor="#399de5"] ;
58 -> 59 ;
60 [label="entropy = 0.0\nsamples = 9\nvalue = [9, 0]\nclass = No tiene infarto", fillcolor="#e58139"] ;
58 -> 60 ;
61 [label="entropy = 0.0\nsamples = 13\nvalue = [13, 0]\nclass = No tiene infarto", fillcolor="#e58139"] ;
53 -> 61 ;
62 [label="thalach <= 132.5\nentropy = 1.0\nsamples = 94\nvalue = [47, 47]\nclass = No tiene infarto", fillcolor="#ffffff"] ;
36 -> 62 ;
63 [label="entropy = 0.0\nsamples = 12\nvalue = [12, 0]\nclass = No tiene infarto", fillcolor="#e58139"] ;
62 -> 63 ;
64 [label="oldpeak <= 1.95\nentropy = 0.984\nsamples = 82\nvalue = [35, 47]\nclass = Tiene infarto", fillcolor="#cce6f8"] ;
62 -> 64 ;
65 [label="trestbps <= 176.0\nentropy = 0.89\nsamples = 65\nvalue = [20, 45]\nclass = Tiene infarto", fillcolor="#91c9f1"] ;
64 -> 65 ;
66 [label="oldpeak <= 0.1\nentropy = 0.791\nsamples = 59\nvalue = [14, 45]\nclass = Tiene infarto", fillcolor="#77bbed"] ;
65 -> 66 ;
67 [label="entropy = 0.0\nsamples = 13\nvalue = [0, 13]\nclass = Tiene infarto", fillcolor="#399de5"] ;
66 -> 67 ;
68 [label="oldpeak <= 1.1\nentropy = 0.887\nsamples = 46\nvalue = [14, 32]\nclass = Tiene infarto", fillcolor="#90c8f0"] ;
66 -> 68 ;
69 [label="entropy = 0.971\nsamples = 35\nvalue = [14, 21]\nclass = Tiene infarto", fillcolor="#bddef6"] ;
68 -> 69 ;
70 [label="entropy = 0.0\nsamples = 11\nvalue = [0, 11]\nclass = Tiene infarto", fillcolor="#399de5"] ;
68 -> 70 ;
71 [label="entropy = 0.0\nsamples = 6\nvalue = [6, 0]\nclass = No tiene infarto", fillcolor="#e58139"] ;
65 -> 71 ;
72 [label="trestbps <= 159.0\nentropy = 0.523\nsamples = 17\nvalue = [15, 2]\nclass = No tiene infarto", fillcolor="#e89253"] ;
64 -> 72 ;
73 [label="entropy = 0.0\nsamples = 15\nvalue = [15, 0]\nclass = No tiene infarto", fillcolor="#e58139"] ;
72 -> 73 ;
74 [label="entropy = 0.0\nsamples = 2\nvalue = [0, 2]\nclass = Tiene infarto", fillcolor="#399de5"] ;
72 -> 74 ;
}